<?xml version="1.0"?>
<opencv_storage>
<cascade>
  <stageType>BOOST</stageType>
  <featureType>HAAR</featureType>
  <height>20</height>
  <width>20</width>
  <stageParams>
    <boostType>GAB</boostType>
    <minHitRate>9.9500000476837158e-01</minHitRate>
    <maxFalseAlarm>5.0000000000000000e-01</maxFalseAlarm>
    <weightTrimRate>9.4999999999999996e-01</weightTrimRate>
    <maxDepth>1</maxDepth>
    <maxWeakCount>100</maxWeakCount></stageParams>
  <featureParams>
    <maxCatCount>0</maxCatCount>
    <featSize>1</featSize>
    <mode>BASIC</mode></featureParams>
  <stageNum>9</stageNum>
  <stages>
    <!-- stage 0 -->
    <_>
      <maxWeakCount>3</maxWeakCount>
      <stageThreshold>-9.5152306556701660e-01</stageThreshold>
      <weakClassifiers>
        <_>
          <internalNodes>
            0 -1 23 4.8490978777408600e-02</internalNodes>
          <leafValues>
            -8.6903440952301025e-01 8.4945213794708252e-01</leafValues></_>
        <_>
          <internalNodes>
            0 -1 30 8.4834739565849304e-02</internalNodes>
          <leafValues>
            -7.4763798713684082e-01 8.0602413415908813e-01</leafValues></_>
        <_>
          <internalNodes>
            0 -1 14 -6.8433945998549461e-03</internalNodes>
          <leafValues>
            6.6514939069747925e-01 -7.7390015125274658e-01</leafValues></_></weakClassifiers></_>
    <!-- stage 1 -->
    <_>
      <maxWeakCount>4</maxWeakCount>
      <stageThreshold>-5.1832377910614014e-01</stageThreshold>
      <weakClassifiers>
        <_>
          <internalNodes>
            0 -1 44 6.8869188427925110e-02</internalNodes>
          <leafValues>
            -7.3903745412826538e-01 8.1888622045516968e-01</leafValues></_>
        <_>
          <internalNodes>
            0 -1 11 7.1292072534561157e-02</internalNodes>
          <leafValues>
            -8.4988313913345337e-01 6.9443178176879883e-01</leafValues></_>
        <_>
          <internalNodes>
            0 -1 4 2.5602824985980988e-02</internalNodes>
          <leafValues>
            -7.3481351137161255e-01 6.2153321504592896e-01</leafValues></_>
        <_>
          <internalNodes>
            0 -1 29 1.0430825874209404e-02</internalNodes>
          <leafValues>
            -8.7526941299438477e-01 4.4906356930732727e-01</leafValues></_></weakClassifiers></_>
    <!-- stage 2 -->
    <_>
      <maxWeakCount>4</maxWeakCount>
      <stageThreshold>-6.4379137754440308e-01</stageThreshold>
      <weakClassifiers>
        <_>
          <internalNodes>
            0 -1 28 1.5529524534940720e-02</internalNodes>
          <leafValues>
            -7.6874208450317383e-01 7.2525984048843384e-01</leafValues></_>
        <_>
          <internalNodes>
            0 -1 18 2.6570146903395653e-02</internalNodes>
          <leafValues>
            -6.9309914112091064e-01 6.0646790266036987e-01</leafValues></_>
        <_>
          <internalNodes>
            0 -1 31 8.6974635720252991e-02</internalNodes>
          <leafValues>
            -7.7055138349533081e-01 4.4341245293617249e-01</leafValues></_>
        <_>
          <internalNodes>
            0 -1 17 -2.2760342108085752e-04</internalNodes>
          <leafValues>
            3.7463733553886414e-01 -8.6351728439331055e-01</leafValues></_></weakClassifiers></_>
    <!-- stage 3 -->
    <_>
      <maxWeakCount>4</maxWeakCount>
      <stageThreshold>-5.4091739654541016e-01</stageThreshold>
      <weakClassifiers>
        <_>
          <internalNodes>
            0 -1 22 3.9145551621913910e-02</internalNodes>
          <leafValues>
            -8.2248520851135254e-01 6.6953527927398682e-01</leafValues></_>
        <_>
          <internalNodes>
            0 -1 8 -1.2928555719554424e-02</internalNodes>
          <leafValues>
            5.1288634538650513e-01 -8.0744332075119019e-01</leafValues></_>
        <_>
          <internalNodes>
            0 -1 3 6.5065488219261169e-02</internalNodes>
          <leafValues>
            -7.0923966169357300e-01 6.3214266300201416e-01</leafValues></_>
        <_>
          <internalNodes>
            0 -1 27 -9.2786885797977448e-03</internalNodes>
          <leafValues>
            4.7792112827301025e-01 -6.6284644603729248e-01</leafValues></_></weakClassifiers></_>
    <!-- stage 4 -->
    <_>
      <maxWeakCount>6</maxWeakCount>
      <stageThreshold>-7.6838606595993042e-01</stageThreshold>
      <weakClassifiers>
        <_>
          <internalNodes>
            0 -1 20 -6.2565051484853029e-04</internalNodes>
          <leafValues>
            6.3830697536468506e-01 -7.4583965539932251e-01</leafValues></_>
        <_>
          <internalNodes>
            0 -1 1 4.5790374279022217e-02</internalNodes>
          <leafValues>
            -5.2936238050460815e-01 6.7705750465393066e-01</leafValues></_>
        <_>
          <internalNodes>
            0 -1 46 4.9630187451839447e-02</internalNodes>
          <leafValues>
            -6.7931264638900757e-01 4.8189887404441833e-01</leafValues></_>
        <_>
          <internalNodes>
            0 -1 10 1.0989635437726974e-01</internalNodes>
          <leafValues>
            -7.0509183406829834e-01 4.0665709972381592e-01</leafValues></_>
        <_>
          <internalNodes>
            0 -1 32 -6.6983280703425407e-04</internalNodes>
          <leafValues>
            -9.7743779420852661e-01 2.0097985863685608e-01</leafValues></_>
        <_>
          <internalNodes>
            0 -1 16 1.4016475528478622e-02</internalNodes>
          <leafValues>
            -4.1697150468826294e-01 5.7849168777465820e-01</leafValues></_></weakClassifiers></_>
    <!-- stage 5 -->
    <_>
      <maxWeakCount>6</maxWeakCount>
      <stageThreshold>-1.0772384405136108e+00</stageThreshold>
      <weakClassifiers>
        <_>
          <internalNodes>
            0 -1 36 -4.4741484452970326e-04</internalNodes>
          <leafValues>
            -8.5904759168624878e-01 5.8626264333724976e-01</leafValues></_>
        <_>
          <internalNodes>
            0 -1 9 -4.2351678712293506e-04</internalNodes>
          <leafValues>
            3.6095473170280457e-01 -8.0394613742828369e-01</leafValues></_>
        <_>
          <internalNodes>
            0 -1 12 -2.0562685094773769e-03</internalNodes>
          <leafValues>
            3.3444577455520630e-01 -8.1195479631423950e-01</leafValues></_>
        <_>
          <internalNodes>
            0 -1 34 4.0733595960773528e-04</internalNodes>
          <leafValues>
            2.7273824810981750e-01 -9.0987962484359741e-01</leafValues></_>
        <_>
          <internalNodes>
            0 -1 47 -2.1382583305239677e-02</internalNodes>
          <leafValues>
            4.8323869705200195e-01 -5.1684862375259399e-01</leafValues></_>
        <_>
          <internalNodes>
            0 -1 40 -2.0543752179946750e-04</internalNodes>
          <leafValues>
            2.3272754251956940e-01 -9.4346570968627930e-01</leafValues></_></weakClassifiers></_>
    <!-- stage 6 -->
    <_>
      <maxWeakCount>8</maxWeakCount>
      <stageThreshold>-1.3778300285339355e+00</stageThreshold>
      <weakClassifiers>
        <_>
          <internalNodes>
            0 -1 38 4.4693326344713569e-04</internalNodes>
          <leafValues>
            6.0593217611312866e-01 -6.7187500000000000e-01</leafValues></_>
        <_>
          <internalNodes>
            0 -1 26 8.4955962374806404e-03</internalNodes>
          <leafValues>
            -5.3918981552124023e-01 4.9250352382659912e-01</leafValues></_>
        <_>
          <internalNodes>
            0 -1 21 -3.8030790165066719e-04</internalNodes>
          <leafValues>
            3.4232136607170105e-01 -7.4847561120986938e-01</leafValues></_>
        <_>
          <internalNodes>
            0 -1 43 7.2794770821928978e-03</internalNodes>
          <leafValues>
            -5.1430618762969971e-01 4.3257406353950500e-01</leafValues></_>
        <_>
          <internalNodes>
            0 -1 2 6.3854798674583435e-02</internalNodes>
          <leafValues>
            -5.5320727825164795e-01 4.2018899321556091e-01</leafValues></_>
        <_>
          <internalNodes>
            0 -1 15 -5.7178741553798318e-04</internalNodes>
          <leafValues>
            2.6533830165863037e-01 -7.7997756004333496e-01</leafValues></_>
        <_>
          <internalNodes>
            0 -1 42 -6.3147628679871559e-05</internalNodes>
          <leafValues>
            2.1042262017726898e-01 -8.9155870676040649e-01</leafValues></_>
        <_>
          <internalNodes>
            0 -1 25 1.4891276368871331e-03</internalNodes>
          <leafValues>
            -8.6421430110931396e-01 1.8801432847976685e-01</leafValues></_></weakClassifiers></_>
    <!-- stage 7 -->
    <_>
      <maxWeakCount>7</maxWeakCount>
      <stageThreshold>-1.0298995971679688e+00</stageThreshold>
      <weakClassifiers>
        <_>
          <internalNodes>
            0 -1 6 9.8001789301633835e-03</internalNodes>
          <leafValues>
            -7.5137108564376831e-01 5.7521402835845947e-01</leafValues></_>
        <_>
          <internalNodes>
            0 -1 0 3.8418900221586227e-02</internalNodes>
          <leafValues>
            -5.5691772699356079e-01 5.2333492040634155e-01</leafValues></_>
        <_>
          <internalNodes>
            0 -1 24 1.4159135520458221e-02</internalNodes>
          <leafValues>
            -5.9303551912307739e-01 4.5894312858581543e-01</leafValues></_>
        <_>
          <internalNodes>
            0 -1 37 -4.5015032810624689e-05</internalNodes>
          <leafValues>
            2.5136935710906982e-01 -8.7189811468124390e-01</leafValues></_>
        <_>
          <internalNodes>
            0 -1 7 -1.1417671339586377e-04</internalNodes>
          <leafValues>
            -9.0376180410385132e-01 2.0063720643520355e-01</leafValues></_>
        <_>
          <internalNodes>
            0 -1 37 -5.1024375716224313e-04</internalNodes>
          <leafValues>
            -7.9915827512741089e-01 2.2525638341903687e-01</leafValues></_>
        <_>
          <internalNodes>
            0 -1 13 -2.4990623933263123e-04</internalNodes>
          <leafValues>
            -9.0206533670425415e-01 1.9416184723377228e-01</leafValues></_></weakClassifiers></_>
    <!-- stage 8 -->
    <_>
      <maxWeakCount>7</maxWeakCount>
      <stageThreshold>-9.7844344377517700e-01</stageThreshold>
      <weakClassifiers>
        <_>
          <internalNodes>
            0 -1 35 -4.5117503032088280e-03</internalNodes>
          <leafValues>
            5.7403653860092163e-01 -7.7570092678070068e-01</leafValues></_>
        <_>
          <internalNodes>
            0 -1 5 4.1455175727605820e-02</internalNodes>
          <leafValues>
            -6.3169425725936890e-01 3.9583060145378113e-01</leafValues></_>
        <_>
          <internalNodes>
            0 -1 39 -1.0994282783940434e-03</internalNodes>
          <leafValues>
            -7.8152036666870117e-01 3.0600497126579285e-01</leafValues></_>
        <_>
          <internalNodes>
            0 -1 45 -5.8639287948608398e-02</internalNodes>
          <leafValues>
            3.7178841233253479e-01 -5.5818784236907959e-01</leafValues></_>
        <_>
          <internalNodes>
            0 -1 19 -6.1357783852145076e-04</internalNodes>
          <leafValues>
            3.1960561871528625e-01 -7.1212172508239746e-01</leafValues></_>
        <_>
          <internalNodes>
            0 -1 41 -4.5714685256825760e-05</internalNodes>
          <leafValues>
            2.3125398159027100e-01 -8.2546335458755493e-01</leafValues></_>
        <_>
          <internalNodes>
            0 -1 33 -2.6886165142059326e-04</internalNodes>
          <leafValues>
            -9.3578636646270752e-01 1.9027550518512726e-01</leafValues></_></weakClassifiers></_></stages>
  <features>
    <_>
      <rects>
        <_>
          0 3 6 9 -1.</_>
        <_>
          3 3 3 9 2.</_></rects>
      <tilted>0</tilted></_>
    <_>
      <rects>
        <_>
          0 7 9 4 -1.</_>
        <_>
          3 7 3 4 3.</_></rects>
      <tilted>0</tilted></_>
    <_>
      <rects>
        <_>
          0 13 12 5 -1.</_>
        <_>
          6 13 6 5 2.</_></rects>
      <tilted>0</tilted></_>
    <_>
      <rects>
        <_>
          0 14 14 4 -1.</_>
        <_>
          7 14 7 4 2.</_></rects>
      <tilted>0</tilted></_>
    <_>
      <rects>
        <_>
          1 6 9 4 -1.</_>
        <_>
          4 6 3 4 3.</_></rects>
      <tilted>0</tilted></_>
    <_>
      <rects>
        <_>
          3 0 4 15 -1.</_>
        <_>
          3 5 4 5 3.</_></rects>
      <tilted>0</tilted></_>
    <_>
      <rects>
        <_>
          4 7 14 4 -1.</_>
        <_>
          4 9 14 2 2.</_></rects>
      <tilted>0</tilted></_>
    <_>
      <rects>
        <_>
          5 5 3 3 -1.</_>
        <_>
          6 5 1 3 3.</_></rects>
      <tilted>0</tilted></_>
    <_>
      <rects>
        <_>
          5 6 6 3 -1.</_>
        <_>
          8 6 3 3 2.</_></rects>
      <tilted>0</tilted></_>
    <_>
      <rects>
        <_>
          5 7 2 4 -1.</_>
        <_>
          6 7 1 4 2.</_></rects>
      <tilted>0</tilted></_>
    <_>
      <rects>
        <_>
          5 11 15 6 -1.</_>
        <_>
          10 11 5 6 3.</_></rects>
      <tilted>0</tilted></_>
    <_>
      <rects>
        <_>
          5 12 15 5 -1.</_>
        <_>
          10 12 5 5 3.</_></rects>
      <tilted>0</tilted></_>
    <_>
      <rects>
        <_>
          6 3 4 6 -1.</_>
        <_>
          6 3 2 3 2.</_>
        <_>
          8 6 2 3 2.</_></rects>
      <tilted>0</tilted></_>
    <_>
      <rects>
        <_>
          6 5 3 2 -1.</_>
        <_>
          7 5 1 2 3.</_></rects>
      <tilted>0</tilted></_>
    <_>
      <rects>
        <_>
          6 5 4 4 -1.</_>
        <_>
          8 5 2 4 2.</_></rects>
      <tilted>0</tilted></_>
    <_>
      <rects>
        <_>
          6 8 2 3 -1.</_>
        <_>
          7 8 1 3 2.</_></rects>
      <tilted>0</tilted></_>
    <_>
      <rects>
        <_>
          7 0 5 4 -1.</_>
        <_>
          7 2 5 2 2.</_></rects>
      <tilted>0</tilted></_>
    <_>
      <rects>
        <_>
          7 5 2 1 -1.</_>
        <_>
          8 5 1 1 2.</_></rects>
      <tilted>0</tilted></_>
    <_>
      <rects>
        <_>
          8 2 8 8 -1.</_>
        <_>
          8 2 4 4 2.</_>
        <_>
          12 6 4 4 2.</_></rects>
      <tilted>0</tilted></_>
    <_>
      <rects>
        <_>
          8 3 4 1 -1.</_>
        <_>
          10 3 2 1 2.</_></rects>
      <tilted>0</tilted></_>
    <_>
      <rects>
        <_>
          8 4 2 2 -1.</_>
        <_>
          9 4 1 2 2.</_></rects>
      <tilted>0</tilted></_>
    <_>
      <rects>
        <_>
          8 6 2 1 -1.</_>
        <_>
          9 6 1 1 2.</_></rects>
      <tilted>0</tilted></_>
    <_>
      <rects>
        <_>
          8 11 12 3 -1.</_>
        <_>
          12 11 4 3 3.</_></rects>
      <tilted>0</tilted></_>
    <_>
      <rects>
        <_>
          8 11 12 4 -1.</_>
        <_>
          12 11 4 4 3.</_></rects>
      <tilted>0</tilted></_>
    <_>
      <rects>
        <_>
          8 14 5 6 -1.</_>
        <_>
          8 16 5 2 3.</_></rects>
      <tilted>0</tilted></_>
    <_>
      <rects>
        <_>
          9 11 2 7 -1.</_>
        <_>
          10 11 1 7 2.</_></rects>
      <tilted>0</tilted></_>
    <_>
      <rects>
        <_>
          9 14 2 6 -1.</_>
        <_>
          9 16 2 2 3.</_></rects>
      <tilted>0</tilted></_>
    <_>
      <rects>
        <_>
          9 16 3 4 -1.</_>
        <_>
          9 18 3 2 2.</_></rects>
      <tilted>0</tilted></_>
    <_>
      <rects>
        <_>
          10 11 3 9 -1.</_>
        <_>
          10 14 3 3 3.</_></rects>
      <tilted>0</tilted></_>
    <_>
      <rects>
        <_>
          11 2 1 16 -1.</_>
        <_>
          11 10 1 8 2.</_></rects>
      <tilted>0</tilted></_>
    <_>
      <rects>
        <_>
          11 2 6 12 -1.</_>
        <_>
          11 8 6 6 2.</_></rects>
      <tilted>0</tilted></_>
    <_>
      <rects>
        <_>
          11 5 6 15 -1.</_>
        <_>
          11 10 6 5 3.</_></rects>
      <tilted>0</tilted></_>
    <_>
      <rects>
        <_>
          11 13 3 3 -1.</_>
        <_>
          12 13 1 3 3.</_></rects>
      <tilted>0</tilted></_>
    <_>
      <rects>
        <_>
          11 13 3 3 -1.</_>
        <_>
          11 14 3 1 3.</_></rects>
      <tilted>0</tilted></_>
    <_>
      <rects>
        <_>
          11 15 2 1 -1.</_>
        <_>
          12 15 1 1 2.</_></rects>
      <tilted>0</tilted></_>
    <_>
      <rects>
        <_>
          12 7 4 10 -1.</_>
        <_>
          12 7 2 5 2.</_>
        <_>
          14 12 2 5 2.</_></rects>
      <tilted>0</tilted></_>
    <_>
      <rects>
        <_>
          12 13 2 2 -1.</_>
        <_>
          13 13 1 2 2.</_></rects>
      <tilted>0</tilted></_>
    <_>
      <rects>
        <_>
          12 14 1 2 -1.</_>
        <_>
          12 15 1 1 2.</_></rects>
      <tilted>0</tilted></_>
    <_>
      <rects>
        <_>
          12 14 3 1 -1.</_>
        <_>
          13 14 1 1 3.</_></rects>
      <tilted>0</tilted></_>
    <_>
      <rects>
        <_>
          12 14 2 2 -1.</_>
        <_>
          12 15 2 1 2.</_></rects>
      <tilted>0</tilted></_>
    <_>
      <rects>
        <_>
          12 15 2 2 -1.</_>
        <_>
          12 16 2 1 2.</_></rects>
      <tilted>0</tilted></_>
    <_>
      <rects>
        <_>
          13 13 1 2 -1.</_>
        <_>
          13 14 1 1 2.</_></rects>
      <tilted>0</tilted></_>
    <_>
      <rects>
        <_>
          13 14 1 2 -1.</_>
        <_>
          13 15 1 1 2.</_></rects>
      <tilted>0</tilted></_>
    <_>
      <rects>
        <_>
          14 1 1 8 -1.</_>
        <_>
          14 5 1 4 2.</_></rects>
      <tilted>0</tilted></_>
    <_>
      <rects>
        <_>
          14 2 3 18 -1.</_>
        <_>
          14 8 3 6 3.</_></rects>
      <tilted>0</tilted></_>
    <_>
      <rects>
        <_>
          14 6 6 9 -1.</_>
        <_>
          17 6 3 9 2.</_></rects>
      <tilted>0</tilted></_>
    <_>
      <rects>
        <_>
          15 2 2 18 -1.</_>
        <_>
          15 8 2 6 3.</_></rects>
      <tilted>0</tilted></_>
    <_>
      <rects>
        <_>
          16 9 4 4 -1.</_>
        <_>
          18 9 2 4 2.</_></rects>
      <tilted>0</tilted></_></features></cascade>
</opencv_storage>
