<?xml version="1.0"?>
<opencv_storage>
<cascade>
  <stageType>BOOST</stageType>
  <featureType>HAAR</featureType>
  <height>40</height>
  <width>40</width>
  <stageParams>
    <boostType>GAB</boostType>
    <minHitRate>9.9500000476837158e-01</minHitRate>
    <maxFalseAlarm>5.0000000000000000e-01</maxFalseAlarm>
    <weightTrimRate>9.4999999999999996e-01</weightTrimRate>
    <maxDepth>1</maxDepth>
    <maxWeakCount>100</maxWeakCount></stageParams>
  <featureParams>
    <maxCatCount>0</maxCatCount>
    <featSize>1</featSize>
    <mode>BASIC</mode></featureParams>
  <stageNum>2</stageNum>
  <stages>
    <!-- stage 0 -->
    <_>
      <maxWeakCount>8</maxWeakCount>
      <stageThreshold>-1.3436297178268433e+00</stageThreshold>
      <weakClassifiers>
        <_>
          <internalNodes>
            0 -1 1 4.8566166311502457e-02</internalNodes>
          <leafValues>
            -6.8672198057174683e-01 7.0637327432632446e-01</leafValues></_>
        <_>
          <internalNodes>
            0 -1 6 -3.9138030260801315e-03</internalNodes>
          <leafValues>
            4.1855153441429138e-01 -6.5000653266906738e-01</leafValues></_>
        <_>
          <internalNodes>
            0 -1 10 7.5870973523706198e-04</internalNodes>
          <leafValues>
            2.1735182404518127e-01 -8.5708779096603394e-01</leafValues></_>
        <_>
          <internalNodes>
            0 -1 3 4.0758870542049408e-02</internalNodes>
          <leafValues>
            -3.6996248364448547e-01 5.5551242828369141e-01</leafValues></_>
        <_>
          <internalNodes>
            0 -1 11 9.5915928250178695e-04</internalNodes>
          <leafValues>
            2.2952827811241150e-01 -8.8005626201629639e-01</leafValues></_>
        <_>
          <internalNodes>
            0 -1 9 1.2581216869875789e-03</internalNodes>
          <leafValues>
            1.9438926875591278e-01 -8.6269348859786987e-01</leafValues></_>
        <_>
          <internalNodes>
            0 -1 7 -5.7921456173062325e-03</internalNodes>
          <leafValues>
            3.2863658666610718e-01 -4.5665851235389709e-01</leafValues></_>
        <_>
          <internalNodes>
            0 -1 14 -2.2294963127933443e-04</internalNodes>
          <leafValues>
            -9.0240639448165894e-01 1.7845049500465393e-01</leafValues></_></weakClassifiers></_>
    <!-- stage 1 -->
    <_>
      <maxWeakCount>7</maxWeakCount>
      <stageThreshold>-9.0968936681747437e-01</stageThreshold>
      <weakClassifiers>
        <_>
          <internalNodes>
            0 -1 0 1.3143691420555115e-01</internalNodes>
          <leafValues>
            -3.2874828577041626e-01 7.8191983699798584e-01</leafValues></_>
        <_>
          <internalNodes>
            0 -1 5 -3.1216961797326803e-03</internalNodes>
          <leafValues>
            -8.0570048093795776e-01 3.6027929186820984e-01</leafValues></_>
        <_>
          <internalNodes>
            0 -1 8 -4.4993301853537560e-03</internalNodes>
          <leafValues>
            -8.4254330396652222e-01 2.1551163494586945e-01</leafValues></_>
        <_>
          <internalNodes>
            0 -1 2 -2.0040080416947603e-03</internalNodes>
          <leafValues>
            2.9120737314224243e-01 -6.2687909603118896e-01</leafValues></_>
        <_>
          <internalNodes>
            0 -1 12 -1.7093024216592312e-03</internalNodes>
          <leafValues>
            -8.8306099176406860e-01 1.6957437992095947e-01</leafValues></_>
        <_>
          <internalNodes>
            0 -1 4 4.7247917391359806e-03</internalNodes>
          <leafValues>
            -5.0414359569549561e-01 3.0801323056221008e-01</leafValues></_>
        <_>
          <internalNodes>
            0 -1 13 7.5547525193542242e-04</internalNodes>
          <leafValues>
            1.5853926539421082e-01 -9.2399680614471436e-01</leafValues></_></weakClassifiers></_></stages>
  <features>
    <_>
      <rects>
        <_>
          1 12 36 20 -1.</_>
        <_>
          13 12 12 20 3.</_></rects>
      <tilted>0</tilted></_>
    <_>
      <rects>
        <_>
          12 6 15 33 -1.</_>
        <_>
          12 17 15 11 3.</_></rects>
      <tilted>0</tilted></_>
    <_>
      <rects>
        <_>
          12 31 11 6 -1.</_>
        <_>
          12 34 11 3 2.</_></rects>
      <tilted>0</tilted></_>
    <_>
      <rects>
        <_>
          13 3 17 14 -1.</_>
        <_>
          13 10 17 7 2.</_></rects>
      <tilted>0</tilted></_>
    <_>
      <rects>
        <_>
          14 7 4 12 -1.</_>
        <_>
          14 13 4 6 2.</_></rects>
      <tilted>0</tilted></_>
    <_>
      <rects>
        <_>
          14 11 12 15 -1.</_>
        <_>
          14 16 12 5 3.</_></rects>
      <tilted>0</tilted></_>
    <_>
      <rects>
        <_>
          14 18 16 7 -1.</_>
        <_>
          22 18 8 7 2.</_></rects>
      <tilted>0</tilted></_>
    <_>
      <rects>
        <_>
          15 31 9 8 -1.</_>
        <_>
          15 35 9 4 2.</_></rects>
      <tilted>0</tilted></_>
    <_>
      <rects>
        <_>
          16 19 10 12 -1.</_>
        <_>
          16 23 10 4 3.</_></rects>
      <tilted>0</tilted></_>
    <_>
      <rects>
        <_>
          19 13 3 13 -1.</_>
        <_>
          20 13 1 13 3.</_></rects>
      <tilted>0</tilted></_>
    <_>
      <rects>
        <_>
          20 14 3 11 -1.</_>
        <_>
          21 14 1 11 3.</_></rects>
      <tilted>0</tilted></_>
    <_>
      <rects>
        <_>
          21 13 3 13 -1.</_>
        <_>
          22 13 1 13 3.</_></rects>
      <tilted>0</tilted></_>
    <_>
      <rects>
        <_>
          23 12 3 18 -1.</_>
        <_>
          24 12 1 18 3.</_></rects>
      <tilted>0</tilted></_>
    <_>
      <rects>
        <_>
          23 16 3 4 -1.</_>
        <_>
          24 16 1 4 3.</_></rects>
      <tilted>0</tilted></_>
    <_>
      <rects>
        <_>
          24 19 1 3 -1.</_>
        <_>
          24 20 1 1 3.</_></rects>
      <tilted>0</tilted></_></features></cascade>
</opencv_storage>
